Language model created by QuickLM on Wed Nov  9 10:44:49 EST 2016
Copyright (c) 1996-2010 Carnegie Mellon University and Alexander I. Rudnicky

The model is in standard ARPA format, designed by Doug Paul while he was at MITRE.

The code that was used to produce this language model is available in Open Source.
Please visit http://www.speech.cs.cmu.edu/tools/ for more information

The (fixed) discount mass is 0.5. The backoffs are computed using the ratio method.
This model based on a corpus of 78 sentences and 104 words

\data\
ngram 1=104
ngram 2=197
ngram 3=170

\1-grams:
-0.9783 </s> -0.3010
-0.9783 <s> -0.2469
-2.5694 A -0.2999
-2.8704 ACCESS -0.2963
-2.5694 ADDRESS -0.2528
-2.8704 AGE -0.2981
-2.8704 ALL -0.2987
-2.8704 AM -0.2999
-2.8704 AN -0.2999
-2.3933 ANY -0.2981
-2.8704 APOLOGISE -0.2528
-2.1714 ARE -0.2843
-2.8704 BACK -0.2528
-2.8704 BACKWARD -0.2528
-2.5694 BE -0.2999
-2.8704 BETTY -0.2528
-2.8704 BLUE -0.2528
-2.8704 BYE -0.2528
-2.5694 CAN -0.2861
-2.8704 CHEERS -0.2528
-2.8704 CHEESE -0.2528
-2.8704 CHRISTMAS -0.2528
-2.8704 CREATED -0.2861
-2.8704 CREATOR -0.2528
-2.8704 CREATORS -0.2528
-2.8704 DIVIDE -0.2528
-1.6663 DO -0.2861
-2.8704 EIGHT -0.2528
-2.8704 FEEL -0.2528
-2.8704 FEELING -0.2528
-2.8704 FIVE -0.2528
-2.3933 FOLLOW -0.2945
-2.8704 FORWARD -0.2528
-2.8704 FOUR -0.2528
-2.5694 FRIENDS -0.2528
-2.8704 GREEN -0.2528
-2.8704 HAPPY -0.2528
-2.3933 HAVE -0.2975
-2.8704 HELLO -0.2528
-2.5694 HERE -0.2528
-2.8704 HI -0.2528
-2.2683 HOW -0.2880
-2.2683 I -0.2975
-2.5694 INTERNET -0.2528
-2.8704 INTRODUCE -0.2999
-2.5694 IP -0.2999
-2.0923 IS -0.2939
-2.8704 IT -0.2999
-2.8704 JOKE -0.2528
-2.2683 KNOW -0.2951
-2.5694 LAWS -0.2528
-2.8704 LEFT -0.2528
-2.3933 LIFE -0.2528
-2.0923 LIKE -0.2945
-2.8704 MADE -0.2861
-2.3933 ME -0.2528
-2.5694 MEANING -0.2981
-2.8704 MERRY -0.3004
-2.8704 MINUS -0.2528
-2.8704 MULTIPLY -0.2528
-2.8704 NINE -0.2528
-2.8704 NO -0.2528
-2.8704 NOTHING -0.2528
-2.1714 OF -0.2963
-2.8704 OLD -0.2981
-2.8704 ONE -0.2528
-2.8704 OTHER -0.2999
-2.5694 PEPPER -0.2528
-2.8704 PHOTO -0.2528
-2.8704 PICTURE -0.2528
-2.8704 PLACE -0.2528
-2.8704 PLEASE -0.2528
-2.8704 PLUS -0.2528
-2.5694 QUESTION -0.2975
-2.8704 RED -0.2528
-2.8704 RIGHT -0.2528
-2.5694 ROBOTS -0.2528
-2.8704 SAD -0.2528
-2.8704 SAY -0.3004
-2.8704 SEVEN -0.2528
-2.8704 SIX -0.2528
-2.5694 SORRY -0.2528
-2.8704 STOP -0.2528
-2.8704 STORY -0.2528
-2.5694 TAKE -0.2999
-2.5694 TELL -0.2999
-2.8704 TEN -0.2528
-2.8704 THANK -0.2861
-2.8704 THAT -0.2987
-1.9673 THE -0.2951
-2.5694 THINK -0.2981
-2.8704 THIS -0.3004
-2.5694 THREE -0.2515
-2.8704 TO -0.2963
-2.8704 TWO -0.2528
-2.8704 USE -0.2963
-2.0253 WHAT -0.2874
-2.2683 WHO -0.2934
-2.8704 WHY -0.2528
-2.8704 YEAH -0.2528
-2.8704 YES -0.2528
-1.4725 YOU -0.2382
-2.3933 YOUR -0.2987
-2.5694 YOURSELF -0.2528

\2-grams:
-2.1931 <s> ALL 0.0000
-2.1931 <s> BACK 0.0000
-2.1931 <s> BACKWARD 0.0000
-1.8921 <s> BE 0.0000
-2.1931 <s> BETTY 0.0000
-2.1931 <s> BLUE 0.0000
-2.1931 <s> BYE 0.0000
-1.8921 <s> CAN 0.0000
-2.1931 <s> CHEERS 0.0000
-2.1931 <s> DIVIDE 0.0000
-1.0792 <s> DO 0.0000
-2.1931 <s> EIGHT 0.0000
-2.1931 <s> FIVE 0.0000
-2.1931 <s> FOLLOW -0.2218
-2.1931 <s> FORWARD 0.0000
-2.1931 <s> FOUR 0.0000
-2.1931 <s> GREEN 0.0000
-2.1931 <s> HELLO 0.0000
-2.1931 <s> HI 0.0000
-1.5911 <s> HOW 0.0000
-1.8921 <s> I -0.1761
-2.1931 <s> INTRODUCE 0.0000
-2.1931 <s> LEFT 0.0000
-2.1931 <s> MERRY 0.0000
-2.1931 <s> MINUS 0.0000
-2.1931 <s> MULTIPLY 0.0000
-2.1931 <s> NINE 0.0000
-2.1931 <s> NO 0.0000
-2.1931 <s> ONE 0.0000
-2.1931 <s> PLEASE 0.0000
-2.1931 <s> PLUS 0.0000
-2.1931 <s> RED 0.0000
-2.1931 <s> RIGHT 0.0000
-2.1931 <s> SAY 0.0000
-2.1931 <s> SEVEN 0.0000
-2.1931 <s> SIX 0.0000
-2.1931 <s> SORRY 0.0000
-2.1931 <s> STOP 0.0000
-1.8921 <s> TAKE 0.0000
-1.8921 <s> TELL 0.0000
-2.1931 <s> TEN 0.0000
-2.1931 <s> THANK 0.0000
-2.1931 <s> THREE -0.1761
-2.1931 <s> TWO 0.0000
-1.3480 <s> WHAT 0.0000
-1.5911 <s> WHO 0.0000
-2.1931 <s> WHY 0.0000
-2.1931 <s> YEAH 0.0000
-2.1931 <s> YES 0.0000
-0.6021 A JOKE 0.0000
-0.6021 A STORY 0.0000
-0.3010 ACCESS THE -0.2430
-0.3010 ADDRESS </s> -0.3010
-0.3010 AGE ARE -0.0792
-0.3010 ALL I -0.1761
-0.3010 AM SORRY 0.0000
-0.3010 AN IP 0.0000
-0.7782 ANY FRIENDS 0.0000
-0.7782 ANY OTHER 0.0000
-0.7782 ANY ROBOTS 0.0000
-0.3010 APOLOGISE </s> -0.3010
-0.3979 ARE YOU -0.2355
-1.0000 ARE YOUR -0.2218
-0.3010 BACK </s> -0.3010
-0.3010 BACKWARD </s> -0.3010
-0.6021 BE HAPPY 0.0000
-0.6021 BE SAD 0.0000
-0.3010 BETTY </s> -0.3010
-0.3010 BLUE </s> -0.3010
-0.3010 BYE </s> -0.3010
-0.3010 CAN YOU -0.2833
-0.3010 CHEERS </s> -0.3010
-0.3010 CHEESE </s> -0.3010
-0.3010 CHRISTMAS </s> -0.3010
-0.3010 CREATED YOU -0.2455
-0.3010 CREATOR </s> -0.3010
-0.3010 CREATORS </s> -0.3010
-0.3010 DIVIDE </s> -0.3010
-0.3010 DO YOU -0.1335
-0.3010 EIGHT </s> -0.3010
-0.3010 FEEL </s> -0.3010
-0.3010 FEELING </s> -0.3010
-0.3010 FIVE </s> -0.3010
-0.7782 FOLLOW ME 0.0000
-0.4771 FOLLOW THE -0.2430
-0.3010 FORWARD </s> -0.3010
-0.3010 FOUR </s> -0.3010
-0.3010 FRIENDS </s> -0.3010
-0.3010 GREEN </s> -0.3010
-0.3010 HAPPY </s> -0.3010
-0.7782 HAVE AN 0.0000
-0.7782 HAVE ANY -0.2218
-0.7782 HAVE FRIENDS 0.0000
-0.3010 HELLO </s> -0.3010
-0.3010 HERE </s> -0.3010
-0.3010 HI </s> -0.3010
-0.6021 HOW ARE -0.0792
-0.9031 HOW DO 0.0000
-0.9031 HOW OLD 0.0000
-0.9031 I AM 0.0000
-0.9031 I APOLOGISE 0.0000
-0.6021 I KNOW -0.1761
-0.3010 INTERNET </s> -0.3010
-0.3010 INTRODUCE YOURSELF 0.0000
-0.3010 IP ADDRESS 0.0000
-1.0792 IS THAT 0.0000
-0.6021 IS THE -0.1761
-0.7782 IS YOUR -0.1249
-0.3010 IT HERE 0.0000
-0.3010 JOKE </s> -0.3010
-0.6021 KNOW ANY -0.1249
-0.9031 KNOW IS -0.2632
-0.9031 KNOW NOTHING 0.0000
-0.3010 LAWS </s> -0.3010
-0.3010 LEFT </s> -0.3010
-0.3010 LIFE </s> -0.3010
-1.0792 LIKE HERE 0.0000
-1.0792 LIKE IT 0.0000
-1.0792 LIKE ME 0.0000
-1.0792 LIKE PEPPER 0.0000
-1.0792 LIKE THIS 0.0000
-1.0792 LIKE YOURSELF 0.0000
-0.3010 MADE YOU -0.2455
-0.3010 ME </s> -0.3010
-0.3010 MEANING OF -0.1461
-0.3010 MERRY CHRISTMAS 0.0000
-0.3010 MINUS </s> -0.3010
-0.3010 MULTIPLY </s> -0.3010
-0.3010 NINE </s> -0.3010
-0.3010 NO </s> -0.3010
-0.3010 NOTHING </s> -0.3010
-0.5229 OF LIFE 0.0000
-1.0000 OF ME 0.0000
-1.0000 OF PEPPER 0.0000
-0.3010 OLD ARE -0.0792
-0.3010 ONE </s> -0.3010
-0.3010 OTHER ROBOTS 0.0000
-0.3010 PEPPER </s> -0.3010
-0.3010 PHOTO </s> -0.3010
-0.3010 PICTURE </s> -0.3010
-0.3010 PLACE </s> -0.3010
-0.3010 PLEASE </s> -0.3010
-0.3010 PLUS </s> -0.3010
-0.6021 QUESTION OF -0.1461
-0.6021 QUESTION TO 0.0000
-0.3010 RED </s> -0.3010
-0.3010 RIGHT </s> -0.3010
-0.3010 ROBOTS </s> -0.3010
-0.3010 SAD </s> -0.3010
-0.3010 SAY CHEESE 0.0000
-0.3010 SEVEN </s> -0.3010
-0.3010 SIX </s> -0.3010
-0.3010 SORRY </s> -0.3010
-0.3010 STOP </s> -0.3010
-0.3010 STORY </s> -0.3010
-0.6021 TAKE PHOTO 0.0000
-0.6021 TAKE PICTURE 0.0000
-0.3010 TELL A 0.0000
-0.3010 TEN </s> -0.3010
-0.3010 THANK YOU -0.2455
-0.3010 THAT I -0.1761
-0.9031 THE INTERNET 0.0000
-1.2041 THE LAWS 0.0000
-0.9031 THE MEANING 0.0000
-0.9031 THE QUESTION 0.0000
-1.2041 THE THREE -0.1761
-0.3010 THINK OF -0.2041
-0.3010 THIS PLACE 0.0000
-0.6021 THREE </s> -0.3010
-0.6021 THREE LAWS 0.0000
-0.3010 TO THE -0.2430
-0.3010 TWO </s> -0.3010
-0.3010 USE THE -0.2430
-1.1461 WHAT AGE 0.0000
-0.8451 WHAT DO 0.0000
-0.5441 WHAT IS -0.0669
-0.9031 WHO ARE -0.2553
-0.9031 WHO CREATED 0.0000
-0.9031 WHO IS -0.2218
-0.9031 WHO MADE 0.0000
-0.3010 WHY </s> -0.3010
-0.3010 YEAH </s> -0.3010
-0.3010 YES </s> -0.3010
-0.9208 YOU </s> -0.3010
-1.6990 YOU ACCESS 0.0000
-1.6990 YOU FEEL 0.0000
-1.6990 YOU FEELING 0.0000
-1.3979 YOU FOLLOW -0.1249
-1.2218 YOU HAVE 0.0000
-1.3979 YOU KNOW -0.1761
-0.9208 YOU LIKE 0.0000
-1.3979 YOU THINK 0.0000
-1.6990 YOU USE 0.0000
-0.7782 YOUR CREATOR 0.0000
-0.7782 YOUR CREATORS 0.0000
-0.7782 YOUR IP 0.0000
-0.3010 YOURSELF </s> -0.3010

\3-grams:
-0.3010 <s> ALL I
-0.3010 <s> BACK </s>
-0.3010 <s> BACKWARD </s>
-0.6021 <s> BE HAPPY
-0.6021 <s> BE SAD
-0.3010 <s> BETTY </s>
-0.3010 <s> BLUE </s>
-0.3010 <s> BYE </s>
-0.3010 <s> CAN YOU
-0.3010 <s> CHEERS </s>
-0.3010 <s> DIVIDE </s>
-0.3010 <s> DO YOU
-0.3010 <s> EIGHT </s>
-0.3010 <s> FIVE </s>
-0.3010 <s> FOLLOW ME
-0.3010 <s> FORWARD </s>
-0.3010 <s> FOUR </s>
-0.3010 <s> GREEN </s>
-0.3010 <s> HELLO </s>
-0.3010 <s> HI </s>
-0.6021 <s> HOW ARE
-0.9031 <s> HOW DO
-0.9031 <s> HOW OLD
-0.6021 <s> I AM
-0.6021 <s> I APOLOGISE
-0.3010 <s> INTRODUCE YOURSELF
-0.3010 <s> LEFT </s>
-0.3010 <s> MERRY CHRISTMAS
-0.3010 <s> MINUS </s>
-0.3010 <s> MULTIPLY </s>
-0.3010 <s> NINE </s>
-0.3010 <s> NO </s>
-0.3010 <s> ONE </s>
-0.3010 <s> PLEASE </s>
-0.3010 <s> PLUS </s>
-0.3010 <s> RED </s>
-0.3010 <s> RIGHT </s>
-0.3010 <s> SAY CHEESE
-0.3010 <s> SEVEN </s>
-0.3010 <s> SIX </s>
-0.3010 <s> SORRY </s>
-0.3010 <s> STOP </s>
-0.6021 <s> TAKE PHOTO
-0.6021 <s> TAKE PICTURE
-0.3010 <s> TELL A
-0.3010 <s> TEN </s>
-0.3010 <s> THANK YOU
-0.3010 <s> THREE </s>
-0.3010 <s> TWO </s>
-1.1461 <s> WHAT AGE
-0.8451 <s> WHAT DO
-0.5441 <s> WHAT IS
-0.9031 <s> WHO ARE
-0.9031 <s> WHO CREATED
-0.9031 <s> WHO IS
-0.9031 <s> WHO MADE
-0.3010 <s> WHY </s>
-0.3010 <s> YEAH </s>
-0.3010 <s> YES </s>
-0.3010 A JOKE </s>
-0.3010 A STORY </s>
-0.3010 ACCESS THE INTERNET
-0.3010 AGE ARE YOU
-0.3010 ALL I KNOW
-0.3010 AM SORRY </s>
-0.3010 AN IP ADDRESS
-0.3010 ANY FRIENDS </s>
-0.3010 ANY OTHER ROBOTS
-0.3010 ANY ROBOTS </s>
-0.4260 ARE YOU </s>
-0.9031 ARE YOU FEELING
-0.3010 ARE YOUR CREATORS
-0.3010 BE HAPPY </s>
-0.3010 BE SAD </s>
-0.6021 CAN YOU ACCESS
-0.6021 CAN YOU USE
-0.3010 CREATED YOU </s>
-1.5051 DO YOU FEEL
-1.2041 DO YOU FOLLOW
-1.0280 DO YOU HAVE
-1.2041 DO YOU KNOW
-0.7270 DO YOU LIKE
-1.2041 DO YOU THINK
-0.3010 FOLLOW ME </s>
-0.6021 FOLLOW THE LAWS
-0.6021 FOLLOW THE THREE
-0.3010 HAVE AN IP
-0.3010 HAVE ANY FRIENDS
-0.3010 HAVE FRIENDS </s>
-0.3010 HOW ARE YOU
-0.3010 HOW DO YOU
-0.3010 HOW OLD ARE
-0.3010 I AM SORRY
-0.3010 I APOLOGISE </s>
-0.6021 I KNOW IS
-0.6021 I KNOW NOTHING
-0.3010 INTRODUCE YOURSELF </s>
-0.3010 IP ADDRESS </s>
-0.3010 IS THAT I
-0.7782 IS THE MEANING
-0.4771 IS THE QUESTION
-0.6021 IS YOUR CREATOR
-0.6021 IS YOUR IP
-0.3010 IT HERE </s>
-0.6021 KNOW ANY OTHER
-0.6021 KNOW ANY ROBOTS
-0.3010 KNOW IS THAT
-0.3010 KNOW NOTHING </s>
-0.3010 LIKE HERE </s>
-0.3010 LIKE IT HERE
-0.3010 LIKE ME </s>
-0.3010 LIKE PEPPER </s>
-0.3010 LIKE THIS PLACE
-0.3010 LIKE YOURSELF </s>
-0.3010 MADE YOU </s>
-0.3010 MEANING OF LIFE
-0.3010 MERRY CHRISTMAS </s>
-0.3010 OF LIFE </s>
-0.3010 OF ME </s>
-0.3010 OF PEPPER </s>
-0.3010 OLD ARE YOU
-0.3010 OTHER ROBOTS </s>
-0.3010 QUESTION OF LIFE
-0.3010 QUESTION TO THE
-0.3010 SAY CHEESE </s>
-0.3010 TAKE PHOTO </s>
-0.3010 TAKE PICTURE </s>
-0.6021 TELL A JOKE
-0.6021 TELL A STORY
-0.3010 THANK YOU </s>
-0.3010 THAT I KNOW
-0.3010 THE INTERNET </s>
-0.3010 THE LAWS </s>
-0.3010 THE MEANING OF
-0.6021 THE QUESTION OF
-0.6021 THE QUESTION TO
-0.3010 THE THREE LAWS
-0.6021 THINK OF ME
-0.6021 THINK OF PEPPER
-0.3010 THIS PLACE </s>
-0.3010 THREE LAWS </s>
-0.3010 TO THE MEANING
-0.3010 USE THE INTERNET
-0.3010 WHAT AGE ARE
-0.3010 WHAT DO YOU
-0.4260 WHAT IS THE
-0.9031 WHAT IS YOUR
-0.3010 WHO ARE YOUR
-0.3010 WHO CREATED YOU
-0.3010 WHO IS YOUR
-0.3010 WHO MADE YOU
-0.3010 YOU ACCESS THE
-0.3010 YOU FEEL </s>
-0.3010 YOU FEELING </s>
-0.3010 YOU FOLLOW THE
-0.7782 YOU HAVE AN
-0.7782 YOU HAVE ANY
-0.7782 YOU HAVE FRIENDS
-0.3010 YOU KNOW ANY
-1.0792 YOU LIKE HERE
-1.0792 YOU LIKE IT
-1.0792 YOU LIKE ME
-1.0792 YOU LIKE PEPPER
-1.0792 YOU LIKE THIS
-1.0792 YOU LIKE YOURSELF
-0.3010 YOU THINK OF
-0.3010 YOU USE THE
-0.3010 YOUR CREATOR </s>
-0.3010 YOUR CREATORS </s>
-0.3010 YOUR IP ADDRESS

\end\
