Language model created by QuickLM on Fri Nov 11 12:58:22 EST 2016
Copyright (c) 1996-2010 Carnegie Mellon University and Alexander I. Rudnicky

The model is in standard ARPA format, designed by Doug Paul while he was at MITRE.

The code that was used to produce this language model is available in Open Source.
Please visit http://www.speech.cs.cmu.edu/tools/ for more information

The (fixed) discount mass is 0.5. The backoffs are computed using the ratio method.
This model based on a corpus of 97 sentences and 119 words

\data\
ngram 1=119
ngram 2=240
ngram 3=218

\1-grams:
-1.0009 </s> -0.3010
-1.0009 <s> -0.2240
-2.3856 A -0.2983
-2.9877 ABOUT -0.2988
-2.9877 ACCESS -0.2952
-2.6866 ADDRESS -0.2554
-2.9877 AGE -0.2965
-2.9877 ALL -0.2992
-2.9877 AM -0.3001
-2.9877 AN -0.3001
-2.3856 ANY -0.2965
-2.9877 APOLOGISE -0.2554
-1.9877 ARE -0.2790
-2.9877 BACK -0.2554
-2.9877 BACKWARD -0.2554
-2.6866 BE -0.3001
-2.6866 BETTY -0.2554
-2.9877 BLUE -0.2554
-2.9877 BYE -0.2554
-2.6866 CAN -0.2870
-2.9877 CHEERS -0.2554
-2.9877 CHEESE -0.2554
-2.9877 CHRISTMAS -0.2554
-2.9877 CREATED -0.2870
-2.9877 CREATOR -0.2554
-2.9877 CREATORS -0.2554
-2.9877 DIVIDE -0.2554
-1.7089 DO -0.2870
-2.9877 EIGHT -0.2554
-2.9877 EMMA -0.2554
-2.5105 FAMILY -0.2554
-2.9877 FEEL -0.2554
-2.9877 FEELING -0.2554
-2.9877 FIVE -0.2554
-2.5105 FOLLOW -0.2938
-2.9877 FORWARD -0.2554
-2.9877 FOUR -0.2554
-2.9877 FRIEND -0.2554
-2.5105 FRIENDS -0.2549
-2.9877 GREEN -0.2554
-2.9877 HAPPY -0.2554
-2.2095 HAVE -0.2943
-2.9877 HELLO -0.2554
-2.6866 HERE -0.2554
-2.9877 HI -0.2554
-2.3856 HOW -0.2874
-2.9877 HUMANS -0.2554
-2.3856 I -0.2979
-2.6866 INTERNET -0.2554
-2.9877 INTRODUCE -0.3001
-2.6866 IP -0.3001
-2.0334 IS -0.2893
-2.9877 IT -0.3001
-2.6866 JOHN -0.3001
-2.9877 JOKE -0.2554
-2.2887 KNOW -0.2943
-2.1426 LAWS -0.2514
-2.9877 LEFT -0.2554
-2.5105 LIFE -0.2554
-2.2095 LIKE -0.2947
-2.9877 LOVE -0.2554
-2.9877 MADE -0.2870
-2.5105 ME -0.2554
-2.6866 MEANING -0.2974
-2.9877 MERRY -0.3006
-2.9877 MINUS -0.2554
-2.9877 MULTIPLY -0.2554
-2.9877 NINE -0.2554
-2.9877 NO -0.2554
-2.6866 NOTHING -0.2544
-2.0846 OF -0.2947
-2.9877 OLD -0.2965
-2.9877 ONE -0.2554
-2.9877 OTHER -0.2997
-2.2887 PEPPER -0.2534
-2.9877 PHOTO -0.2554
-2.9877 PICTURE -0.2554
-2.9877 PLACE -0.2554
-2.9877 PLEASE -0.2554
-2.9877 PLUS -0.2554
-2.6866 QUESTION -0.2970
-2.9877 RED -0.2554
-2.9877 REPLACE -0.3006
-2.9877 RIGHT -0.2554
-2.9877 ROBOT -0.2554
-2.5105 ROBOTICS -0.2554
-2.5105 ROBOTS -0.2549
-2.9877 SAD -0.2554
-2.9877 SAY -0.3006
-2.9877 SEVEN -0.2554
-2.9877 SIX -0.2554
-2.6866 SNOW -0.2554
-2.6866 SORRY -0.2554
-2.6866 STATE -0.2952
-2.9877 STOP -0.2554
-2.9877 STORY -0.2554
-2.6866 TAKE -0.3001
-2.6866 TELL -0.2992
-2.9877 TEN -0.2554
-2.9877 THANK -0.2870
-2.9877 THAT -0.2992
-1.8737 THE -0.2925
-2.6866 THINK -0.2974
-2.9877 THIS -0.3006
-2.2095 THREE -0.2519
-2.9877 TO -0.2952
-2.9877 TWO -0.2554
-2.9877 USE -0.2952
-2.9877 WELCOME -0.2554
-1.9085 WHAT -0.2828
-2.2887 WHO -0.2915
-2.9877 WHY -0.2554
-2.9877 WILL -0.2997
-2.9877 WITH -0.2988
-2.9877 YEAH -0.2554
-2.9877 YES -0.2554
-1.4963 YOU -0.2387
-2.3856 YOUR -0.2988
-2.6866 YOURSELF -0.2554

\2-grams:
-2.2878 <s> ALL 0.0000
-1.9868 <s> ARE -0.1461
-2.2878 <s> BACK 0.0000
-2.2878 <s> BACKWARD 0.0000
-1.9868 <s> BE 0.0000
-2.2878 <s> BETTY 0.0000
-2.2878 <s> BLUE 0.0000
-2.2878 <s> BYE 0.0000
-1.9868 <s> CAN 0.0000
-2.2878 <s> CHEERS 0.0000
-2.2878 <s> DIVIDE 0.0000
-1.0837 <s> DO 0.0000
-2.2878 <s> EIGHT 0.0000
-2.2878 <s> EMMA 0.0000
-2.2878 <s> FIVE 0.0000
-2.2878 <s> FOLLOW -0.2218
-2.2878 <s> FORWARD 0.0000
-2.2878 <s> FOUR 0.0000
-2.2878 <s> GREEN 0.0000
-2.2878 <s> HELLO 0.0000
-2.2878 <s> HI 0.0000
-1.6857 <s> HOW 0.0000
-1.9868 <s> I -0.1761
-2.2878 <s> INTRODUCE 0.0000
-2.2878 <s> IS -0.2762
-2.2878 <s> JOHN 0.0000
-2.2878 <s> LEFT 0.0000
-2.2878 <s> MERRY 0.0000
-2.2878 <s> MINUS 0.0000
-2.2878 <s> MULTIPLY 0.0000
-2.2878 <s> NINE 0.0000
-2.2878 <s> NO 0.0000
-2.2878 <s> ONE 0.0000
-2.2878 <s> PLEASE 0.0000
-2.2878 <s> PLUS 0.0000
-2.2878 <s> RED 0.0000
-2.2878 <s> RIGHT 0.0000
-2.2878 <s> SAY 0.0000
-2.2878 <s> SEVEN 0.0000
-2.2878 <s> SIX 0.0000
-2.2878 <s> SORRY 0.0000
-1.9868 <s> STATE 0.0000
-2.2878 <s> STOP 0.0000
-1.9868 <s> TAKE 0.0000
-1.9868 <s> TELL 0.0000
-2.2878 <s> TEN 0.0000
-2.2878 <s> THANK 0.0000
-2.2878 <s> THREE -0.2632
-2.2878 <s> TWO 0.0000
-2.2878 <s> WELCOME 0.0000
-1.2086 <s> WHAT 0.0000
-1.5888 <s> WHO 0.0000
-2.2878 <s> WHY 0.0000
-2.2878 <s> WILL 0.0000
-2.2878 <s> YEAH 0.0000
-2.2878 <s> YES 0.0000
-2.2878 <s> YOU -0.2795
-0.9031 A FAMILY 0.0000
-0.9031 A JOKE 0.0000
-0.9031 A ROBOT 0.0000
-0.9031 A STORY 0.0000
-0.3010 ABOUT PEPPER -0.0792
-0.3010 ACCESS THE -0.2663
-0.3010 ADDRESS </s> -0.3010
-0.3010 AGE ARE -0.1461
-0.3010 ALL I -0.1761
-0.3010 AM SORRY 0.0000
-0.3010 AN IP 0.0000
-0.9031 ANY FAMILY 0.0000
-0.9031 ANY FRIENDS -0.1249
-0.9031 ANY OTHER 0.0000
-0.9031 ANY ROBOTS -0.1249
-0.3010 APOLOGISE </s> -0.3010
-0.8239 ARE THE -0.1648
-0.5229 ARE YOU -0.2329
-1.3010 ARE YOUR -0.2430
-0.3010 BACK </s> -0.3010
-0.3010 BACKWARD </s> -0.3010
-0.6021 BE HAPPY 0.0000
-0.6021 BE SAD 0.0000
-0.3010 BETTY </s> -0.3010
-0.3010 BLUE </s> -0.3010
-0.3010 BYE </s> -0.3010
-0.3010 CAN YOU -0.2868
-0.3010 CHEERS </s> -0.3010
-0.3010 CHEESE </s> -0.3010
-0.3010 CHRISTMAS </s> -0.3010
-0.3010 CREATED YOU -0.2568
-0.3010 CREATOR </s> -0.3010
-0.3010 CREATORS </s> -0.3010
-0.3010 DIVIDE </s> -0.3010
-0.3010 DO YOU -0.1319
-0.3010 EIGHT </s> -0.3010
-0.3010 EMMA </s> -0.3010
-0.3010 FAMILY </s> -0.3010
-0.3010 FEEL </s> -0.3010
-0.3010 FEELING </s> -0.3010
-0.3010 FIVE </s> -0.3010
-0.7782 FOLLOW ME 0.0000
-0.4771 FOLLOW THE -0.1648
-0.3010 FORWARD </s> -0.3010
-0.3010 FOUR </s> -0.3010
-0.3010 FRIEND </s> -0.3010
-0.4771 FRIENDS </s> -0.3010
-0.7782 FRIENDS WITH 0.0000
-0.3010 GREEN </s> -0.3010
-0.3010 HAPPY </s> -0.3010
-1.0792 HAVE A -0.2430
-1.0792 HAVE AN 0.0000
-0.7782 HAVE ANY -0.1761
-1.0792 HAVE FAMILY 0.0000
-1.0792 HAVE FRIENDS -0.1249
-0.3010 HELLO </s> -0.3010
-0.3010 HERE </s> -0.3010
-0.3010 HI </s> -0.3010
-0.6021 HOW ARE -0.1461
-0.9031 HOW DO 0.0000
-0.9031 HOW OLD 0.0000
-0.3010 HUMANS </s> -0.3010
-0.9031 I AM 0.0000
-0.9031 I APOLOGISE 0.0000
-0.6021 I KNOW -0.1461
-0.3010 INTERNET </s> -0.3010
-0.3010 INTRODUCE YOURSELF 0.0000
-0.3010 IP ADDRESS 0.0000
-1.2553 IS BETTY 0.0000
-1.2553 IS LOVE 0.0000
-1.2553 IS PEPPER -0.2553
-1.2553 IS THAT 0.0000
-0.7782 IS THE -0.2285
-0.9542 IS YOUR -0.1761
-0.3010 IT HERE 0.0000
-0.3010 JOHN SNOW 0.0000
-0.3010 JOKE </s> -0.3010
-0.6990 KNOW ANY -0.1761
-1.0000 KNOW IS -0.2762
-0.6990 KNOW NOTHING 0.0000
-0.5441 LAWS </s> -0.3010
-0.6690 LAWS OF -0.2109
-0.3010 LEFT </s> -0.3010
-0.3010 LIFE </s> -0.3010
-1.0792 LIKE HERE 0.0000
-1.0792 LIKE IT 0.0000
-1.0792 LIKE ME 0.0000
-1.0792 LIKE PEPPER -0.0792
-1.0792 LIKE THIS 0.0000
-1.0792 LIKE YOURSELF 0.0000
-0.3010 LOVE </s> -0.3010
-0.3010 MADE YOU -0.2568
-0.3010 ME </s> -0.3010
-0.3010 MEANING OF -0.2109
-0.3010 MERRY CHRISTMAS 0.0000
-0.3010 MINUS </s> -0.3010
-0.3010 MULTIPLY </s> -0.3010
-0.3010 NINE </s> -0.3010
-0.3010 NO </s> -0.3010
-0.6021 NOTHING </s> -0.3010
-0.6021 NOTHING JOHN 0.0000
-0.7270 OF LIFE 0.0000
-1.2041 OF ME 0.0000
-1.2041 OF PEPPER -0.0792
-0.7270 OF ROBOTICS 0.0000
-0.3010 OLD ARE -0.1461
-0.3010 ONE </s> -0.3010
-0.3010 OTHER ROBOTS -0.1249
-0.3979 PEPPER </s> -0.3010
-1.0000 PEPPER YOUR -0.2430
-0.3010 PHOTO </s> -0.3010
-0.3010 PICTURE </s> -0.3010
-0.3010 PLACE </s> -0.3010
-0.3010 PLEASE </s> -0.3010
-0.3010 PLUS </s> -0.3010
-0.6021 QUESTION OF -0.2109
-0.6021 QUESTION TO 0.0000
-0.3010 RED </s> -0.3010
-0.3010 REPLACE HUMANS 0.0000
-0.3010 RIGHT </s> -0.3010
-0.3010 ROBOT </s> -0.3010
-0.3010 ROBOTICS </s> -0.3010
-0.4771 ROBOTS </s> -0.3010
-0.7782 ROBOTS REPLACE 0.0000
-0.3010 SAD </s> -0.3010
-0.3010 SAY CHEESE 0.0000
-0.3010 SEVEN </s> -0.3010
-0.3010 SIX </s> -0.3010
-0.3010 SNOW </s> -0.3010
-0.3010 SORRY </s> -0.3010
-0.3010 STATE THE -0.2083
-0.3010 STOP </s> -0.3010
-0.3010 STORY </s> -0.3010
-0.6021 TAKE PHOTO 0.0000
-0.6021 TAKE PICTURE 0.0000
-0.3010 TELL A -0.1761
-0.3010 TEN </s> -0.3010
-0.3010 THANK YOU -0.2568
-0.3010 THAT I -0.1761
-1.1139 THE INTERNET 0.0000
-1.1139 THE LAWS 0.0000
-1.1139 THE MEANING 0.0000
-1.1139 THE QUESTION 0.0000
-0.7160 THE THREE -0.0669
-0.3010 THINK OF -0.2430
-0.3010 THIS PLACE 0.0000
-1.0792 THREE </s> -0.3010
-0.3802 THREE LAWS 0.0000
-0.3010 TO THE -0.2663
-0.3010 TWO </s> -0.3010
-0.3010 USE THE -0.2663
-0.3010 WELCOME </s> -0.3010
-1.3802 WHAT ABOUT 0.0000
-1.3802 WHAT AGE 0.0000
-0.9031 WHAT ARE -0.2304
-1.0792 WHAT DO 0.0000
-0.6812 WHAT IS -0.1249
-1.0000 WHO ARE -0.2788
-1.0000 WHO CREATED 0.0000
-0.6990 WHO IS -0.2218
-1.0000 WHO MADE 0.0000
-0.3010 WHY </s> -0.3010
-0.3010 WILL ROBOTS -0.2218
-0.3010 WITH PEPPER -0.0792
-0.3010 YEAH </s> -0.3010
-0.3010 YES </s> -0.3010
-1.0142 YOU </s> -0.3010
-1.7924 YOU A -0.2430
-1.7924 YOU ACCESS 0.0000
-1.7924 YOU FEEL 0.0000
-1.7924 YOU FEELING 0.0000
-1.4914 YOU FOLLOW -0.1249
-1.7924 YOU FRIENDS -0.2218
-1.0142 YOU HAVE 0.0000
-1.3153 YOU KNOW -0.0792
-1.0142 YOU LIKE 0.0000
-1.4914 YOU THINK 0.0000
-1.7924 YOU USE 0.0000
-0.9031 YOUR CREATOR 0.0000
-0.9031 YOUR CREATORS 0.0000
-0.9031 YOUR FRIEND 0.0000
-0.9031 YOUR IP 0.0000
-0.3010 YOURSELF </s> -0.3010

\3-grams:
-0.3010 <s> ALL I
-0.3010 <s> ARE YOU
-0.3010 <s> BACK </s>
-0.3010 <s> BACKWARD </s>
-0.6021 <s> BE HAPPY
-0.6021 <s> BE SAD
-0.3010 <s> BETTY </s>
-0.3010 <s> BLUE </s>
-0.3010 <s> BYE </s>
-0.3010 <s> CAN YOU
-0.3010 <s> CHEERS </s>
-0.3010 <s> DIVIDE </s>
-0.3010 <s> DO YOU
-0.3010 <s> EIGHT </s>
-0.3010 <s> EMMA </s>
-0.3010 <s> FIVE </s>
-0.3010 <s> FOLLOW ME
-0.3010 <s> FORWARD </s>
-0.3010 <s> FOUR </s>
-0.3010 <s> GREEN </s>
-0.3010 <s> HELLO </s>
-0.3010 <s> HI </s>
-0.6021 <s> HOW ARE
-0.9031 <s> HOW DO
-0.9031 <s> HOW OLD
-0.6021 <s> I AM
-0.6021 <s> I APOLOGISE
-0.3010 <s> INTRODUCE YOURSELF
-0.3010 <s> IS PEPPER
-0.3010 <s> JOHN SNOW
-0.3010 <s> LEFT </s>
-0.3010 <s> MERRY CHRISTMAS
-0.3010 <s> MINUS </s>
-0.3010 <s> MULTIPLY </s>
-0.3010 <s> NINE </s>
-0.3010 <s> NO </s>
-0.3010 <s> ONE </s>
-0.3010 <s> PLEASE </s>
-0.3010 <s> PLUS </s>
-0.3010 <s> RED </s>
-0.3010 <s> RIGHT </s>
-0.3010 <s> SAY CHEESE
-0.3010 <s> SEVEN </s>
-0.3010 <s> SIX </s>
-0.3010 <s> SORRY </s>
-0.3010 <s> STATE THE
-0.3010 <s> STOP </s>
-0.6021 <s> TAKE PHOTO
-0.6021 <s> TAKE PICTURE
-0.3010 <s> TELL A
-0.3010 <s> TEN </s>
-0.3010 <s> THANK YOU
-0.3010 <s> THREE </s>
-0.3010 <s> TWO </s>
-0.3010 <s> WELCOME </s>
-1.3802 <s> WHAT ABOUT
-1.3802 <s> WHAT AGE
-0.9031 <s> WHAT ARE
-1.0792 <s> WHAT DO
-0.6812 <s> WHAT IS
-1.0000 <s> WHO ARE
-1.0000 <s> WHO CREATED
-0.6990 <s> WHO IS
-1.0000 <s> WHO MADE
-0.3010 <s> WHY </s>
-0.3010 <s> WILL ROBOTS
-0.3010 <s> YEAH </s>
-0.3010 <s> YES </s>
-0.3010 <s> YOU KNOW
-0.3010 A FAMILY </s>
-0.3010 A JOKE </s>
-0.3010 A ROBOT </s>
-0.3010 A STORY </s>
-0.3010 ABOUT PEPPER </s>
-0.3010 ACCESS THE INTERNET
-0.3010 AGE ARE YOU
-0.3010 ALL I KNOW
-0.3010 AM SORRY </s>
-0.3010 AN IP ADDRESS
-0.3010 ANY FAMILY </s>
-0.3010 ANY FRIENDS </s>
-0.3010 ANY OTHER ROBOTS
-0.3010 ANY ROBOTS </s>
-0.7782 ARE THE LAWS
-0.4771 ARE THE THREE
-0.6021 ARE YOU </s>
-1.0792 ARE YOU A
-1.0792 ARE YOU FEELING
-1.0792 ARE YOU FRIENDS
-0.3010 ARE YOUR CREATORS
-0.3010 BE HAPPY </s>
-0.3010 BE SAD </s>
-0.6021 CAN YOU ACCESS
-0.6021 CAN YOU USE
-0.3010 CREATED YOU </s>
-1.5798 DO YOU FEEL
-1.2788 DO YOU FOLLOW
-0.8016 DO YOU HAVE
-1.2788 DO YOU KNOW
-0.8016 DO YOU LIKE
-1.2788 DO YOU THINK
-0.3010 FOLLOW ME </s>
-0.6021 FOLLOW THE LAWS
-0.6021 FOLLOW THE THREE
-0.3010 FRIENDS WITH PEPPER
-0.3010 HAVE A FAMILY
-0.3010 HAVE AN IP
-0.6021 HAVE ANY FAMILY
-0.6021 HAVE ANY FRIENDS
-0.3010 HAVE FAMILY </s>
-0.3010 HAVE FRIENDS </s>
-0.3010 HOW ARE YOU
-0.3010 HOW DO YOU
-0.3010 HOW OLD ARE
-0.3010 I AM SORRY
-0.3010 I APOLOGISE </s>
-0.6021 I KNOW IS
-0.6021 I KNOW NOTHING
-0.3010 INTRODUCE YOURSELF </s>
-0.3010 IP ADDRESS </s>
-0.3010 IS BETTY </s>
-0.3010 IS LOVE </s>
-0.3010 IS PEPPER YOUR
-0.3010 IS THAT I
-0.7782 IS THE MEANING
-0.4771 IS THE QUESTION
-0.6021 IS YOUR CREATOR
-0.6021 IS YOUR IP
-0.3010 IT HERE </s>
-0.3010 JOHN SNOW </s>
-0.6021 KNOW ANY OTHER
-0.6021 KNOW ANY ROBOTS
-0.3010 KNOW IS THAT
-0.6021 KNOW NOTHING </s>
-0.6021 KNOW NOTHING JOHN
-0.3010 LAWS OF ROBOTICS
-0.3010 LIKE HERE </s>
-0.3010 LIKE IT HERE
-0.3010 LIKE ME </s>
-0.3010 LIKE PEPPER </s>
-0.3010 LIKE THIS PLACE
-0.3010 LIKE YOURSELF </s>
-0.3010 MADE YOU </s>
-0.3010 MEANING OF LIFE
-0.3010 MERRY CHRISTMAS </s>
-0.3010 NOTHING JOHN SNOW
-0.3010 OF LIFE </s>
-0.3010 OF ME </s>
-0.3010 OF PEPPER </s>
-0.3010 OF ROBOTICS </s>
-0.3010 OLD ARE YOU
-0.3010 OTHER ROBOTS </s>
-0.3010 PEPPER YOUR FRIEND
-0.3010 QUESTION OF LIFE
-0.3010 QUESTION TO THE
-0.3010 REPLACE HUMANS </s>
-0.3010 ROBOTS REPLACE HUMANS
-0.3010 SAY CHEESE </s>
-0.3010 STATE THE THREE
-0.3010 TAKE PHOTO </s>
-0.3010 TAKE PICTURE </s>
-0.6021 TELL A JOKE
-0.6021 TELL A STORY
-0.3010 THANK YOU </s>
-0.3010 THAT I KNOW
-0.3010 THE INTERNET </s>
-0.6021 THE LAWS </s>
-0.6021 THE LAWS OF
-0.3010 THE MEANING OF
-0.6021 THE QUESTION OF
-0.6021 THE QUESTION TO
-0.3010 THE THREE LAWS
-0.6021 THINK OF ME
-0.6021 THINK OF PEPPER
-0.3010 THIS PLACE </s>
-0.5229 THREE LAWS </s>
-0.6990 THREE LAWS OF
-0.3010 TO THE MEANING
-0.3010 USE THE INTERNET
-0.3010 WHAT ABOUT PEPPER
-0.3010 WHAT AGE ARE
-0.3010 WHAT ARE THE
-0.3010 WHAT DO YOU
-1.0000 WHAT IS LOVE
-0.5229 WHAT IS THE
-1.0000 WHAT IS YOUR
-0.3010 WHO ARE YOUR
-0.3010 WHO CREATED YOU
-0.6021 WHO IS BETTY
-0.6021 WHO IS YOUR
-0.3010 WHO MADE YOU
-0.3010 WILL ROBOTS REPLACE
-0.3010 WITH PEPPER </s>
-0.3010 YOU A ROBOT
-0.3010 YOU ACCESS THE
-0.3010 YOU FEEL </s>
-0.3010 YOU FEELING </s>
-0.3010 YOU FOLLOW THE
-0.3010 YOU FRIENDS WITH
-1.0792 YOU HAVE A
-1.0792 YOU HAVE AN
-0.7782 YOU HAVE ANY
-1.0792 YOU HAVE FAMILY
-1.0792 YOU HAVE FRIENDS
-0.4771 YOU KNOW ANY
-0.7782 YOU KNOW NOTHING
-1.0792 YOU LIKE HERE
-1.0792 YOU LIKE IT
-1.0792 YOU LIKE ME
-1.0792 YOU LIKE PEPPER
-1.0792 YOU LIKE THIS
-1.0792 YOU LIKE YOURSELF
-0.3010 YOU THINK OF
-0.3010 YOU USE THE
-0.3010 YOUR CREATOR </s>
-0.3010 YOUR CREATORS </s>
-0.3010 YOUR FRIEND </s>
-0.3010 YOUR IP ADDRESS

\end\
