Language model created by QuickLM on Fri Nov  4 11:23:03 EDT 2016
Copyright (c) 1996-2010 Carnegie Mellon University and Alexander I. Rudnicky

The model is in standard ARPA format, designed by Doug Paul while he was at MITRE.

The code that was used to produce this language model is available in Open Source.
Please visit http://www.speech.cs.cmu.edu/tools/ for more information

The (fixed) discount mass is 0.5. The backoffs are computed using the ratio method.
This model based on a corpus of 51 sentences and 69 words

\data\
ngram 1=69
ngram 2=120
ngram 3=78

\1-grams:
-0.8559 </s> -0.3010
-0.8559 <s> -0.2331
-2.2625 A -0.2987
-2.5635 AM -0.2987
-2.5635 APOLOGISE -0.2359
-2.2625 ARE -0.2951
-2.5635 BACK -0.2359
-2.5635 BACKWARD -0.2359
-2.2625 BE -0.2987
-2.5635 BETTY -0.2359
-2.5635 BLUE -0.2359
-2.5635 BYE -0.2359
-2.5635 CHEERS -0.2359
-2.5635 CHEESE -0.2359
-2.5635 CHRISTMAS -0.2359
-2.5635 DIVIDE -0.2359
-2.2625 DO -0.2951
-2.5635 EIGHT -0.2359
-2.5635 FEELING -0.2359
-2.5635 FIVE -0.2359
-2.5635 FOLLOW -0.2987
-2.5635 FORWARD -0.2359
-2.5635 FOUR -0.2359
-2.5635 GREEN -0.2359
-2.5635 HAPPY -0.2359
-2.5635 HELLO -0.2359
-2.5635 HERE -0.2359
-2.5635 HI -0.2359
-2.2625 HOW -0.2987
-2.2625 I -0.2987
-2.5635 INTRODUCE -0.2998
-2.5635 IT -0.2998
-2.5635 JOKE -0.2359
-2.5635 LEFT -0.2359
-2.5635 LIKE -0.2998
-2.2625 ME -0.2359
-2.5635 MERRY -0.2998
-2.5635 MINUS -0.2359
-2.5635 MULTIPLY -0.2359
-2.5635 NINE -0.2359
-2.5635 NO -0.2359
-2.5635 OF -0.2987
-2.5635 ONE -0.2359
-2.5635 PHOTO -0.2359
-2.5635 PICTURE -0.2359
-2.5635 PLEASE -0.2359
-2.5635 PLUS -0.2359
-2.5635 RED -0.2359
-2.5635 RIGHT -0.2359
-2.5635 SAD -0.2359
-2.5635 SAY -0.2998
-2.5635 SEVEN -0.2359
-2.5635 SIX -0.2359
-2.2625 SORRY -0.2359
-2.5635 STOP -0.2359
-2.5635 STORY -0.2359
-2.2625 TAKE -0.2987
-2.2625 TELL -0.2987
-2.5635 TEN -0.2359
-2.5635 THANK -0.2951
-2.5635 THINK -0.2998
-2.5635 THREE -0.2359
-2.5635 TWO -0.2359
-2.5635 WHAT -0.2987
-2.5635 WHY -0.2359
-2.5635 YEAH -0.2359
-2.5635 YES -0.2359
-1.8645 YOU -0.2317
-2.5635 YOURSELF -0.2359

\2-grams:
-2.0086 <s> BACK 0.0000
-2.0086 <s> BACKWARD 0.0000
-1.7076 <s> BE 0.0000
-2.0086 <s> BETTY 0.0000
-2.0086 <s> BLUE 0.0000
-2.0086 <s> BYE 0.0000
-2.0086 <s> CHEERS 0.0000
-2.0086 <s> DIVIDE 0.0000
-2.0086 <s> DO 0.0000
-2.0086 <s> EIGHT 0.0000
-2.0086 <s> FIVE 0.0000
-2.0086 <s> FOLLOW 0.0000
-2.0086 <s> FORWARD 0.0000
-2.0086 <s> FOUR 0.0000
-2.0086 <s> GREEN 0.0000
-2.0086 <s> HELLO 0.0000
-2.0086 <s> HI 0.0000
-1.7076 <s> HOW 0.0000
-1.7076 <s> I 0.0000
-2.0086 <s> INTRODUCE 0.0000
-2.0086 <s> LEFT 0.0000
-2.0086 <s> MERRY 0.0000
-2.0086 <s> MINUS 0.0000
-2.0086 <s> MULTIPLY 0.0000
-2.0086 <s> NINE 0.0000
-2.0086 <s> NO 0.0000
-2.0086 <s> ONE 0.0000
-2.0086 <s> PLEASE 0.0000
-2.0086 <s> PLUS 0.0000
-2.0086 <s> RED 0.0000
-2.0086 <s> RIGHT 0.0000
-2.0086 <s> SAY 0.0000
-2.0086 <s> SEVEN 0.0000
-2.0086 <s> SIX 0.0000
-2.0086 <s> SORRY 0.0000
-2.0086 <s> STOP 0.0000
-1.7076 <s> TAKE 0.0000
-1.7076 <s> TELL 0.0000
-2.0086 <s> TEN 0.0000
-2.0086 <s> THANK 0.0000
-2.0086 <s> THREE 0.0000
-2.0086 <s> TWO 0.0000
-2.0086 <s> WHAT 0.0000
-2.0086 <s> WHY 0.0000
-2.0086 <s> YEAH 0.0000
-2.0086 <s> YES 0.0000
-0.6021 A JOKE 0.0000
-0.6021 A STORY 0.0000
-0.3010 AM SORRY 0.0000
-0.3010 APOLOGISE </s> -0.3010
-0.3010 ARE YOU -0.1461
-0.3010 BACK </s> -0.3010
-0.3010 BACKWARD </s> -0.3010
-0.6021 BE HAPPY 0.0000
-0.6021 BE SAD 0.0000
-0.3010 BETTY </s> -0.3010
-0.3010 BLUE </s> -0.3010
-0.3010 BYE </s> -0.3010
-0.3010 CHEERS </s> -0.3010
-0.3010 CHEESE </s> -0.3010
-0.3010 CHRISTMAS </s> -0.3010
-0.3010 DIVIDE </s> -0.3010
-0.3010 DO YOU -0.2041
-0.3010 EIGHT </s> -0.3010
-0.3010 FEELING </s> -0.3010
-0.3010 FIVE </s> -0.3010
-0.3010 FOLLOW ME 0.0000
-0.3010 FORWARD </s> -0.3010
-0.3010 FOUR </s> -0.3010
-0.3010 GREEN </s> -0.3010
-0.3010 HAPPY </s> -0.3010
-0.3010 HELLO </s> -0.3010
-0.3010 HERE </s> -0.3010
-0.3010 HI </s> -0.3010
-0.3010 HOW ARE 0.0000
-0.6021 I AM 0.0000
-0.6021 I APOLOGISE 0.0000
-0.3010 INTRODUCE YOURSELF 0.0000
-0.3010 IT HERE 0.0000
-0.3010 JOKE </s> -0.3010
-0.3010 LEFT </s> -0.3010
-0.3010 LIKE IT 0.0000
-0.3010 ME </s> -0.3010
-0.3010 MERRY CHRISTMAS 0.0000
-0.3010 MINUS </s> -0.3010
-0.3010 MULTIPLY </s> -0.3010
-0.3010 NINE </s> -0.3010
-0.3010 NO </s> -0.3010
-0.3010 OF ME 0.0000
-0.3010 ONE </s> -0.3010
-0.3010 PHOTO </s> -0.3010
-0.3010 PICTURE </s> -0.3010
-0.3010 PLEASE </s> -0.3010
-0.3010 PLUS </s> -0.3010
-0.3010 RED </s> -0.3010
-0.3010 RIGHT </s> -0.3010
-0.3010 SAD </s> -0.3010
-0.3010 SAY CHEESE 0.0000
-0.3010 SEVEN </s> -0.3010
-0.3010 SIX </s> -0.3010
-0.3010 SORRY </s> -0.3010
-0.3010 STOP </s> -0.3010
-0.3010 STORY </s> -0.3010
-0.6021 TAKE PHOTO 0.0000
-0.6021 TAKE PICTURE 0.0000
-0.3010 TELL A 0.0000
-0.3010 TEN </s> -0.3010
-0.3010 THANK YOU -0.2041
-0.3010 THINK OF 0.0000
-0.3010 THREE </s> -0.3010
-0.3010 TWO </s> -0.3010
-0.3010 WHAT DO 0.0000
-0.3010 WHY </s> -0.3010
-0.3010 YEAH </s> -0.3010
-0.3010 YES </s> -0.3010
-0.6990 YOU </s> -0.3010
-1.0000 YOU FEELING 0.0000
-1.0000 YOU LIKE 0.0000
-1.0000 YOU THINK 0.0000
-0.3010 YOURSELF </s> -0.3010

\3-grams:
-0.3010 <s> BACK </s>
-0.3010 <s> BACKWARD </s>
-0.6021 <s> BE HAPPY
-0.6021 <s> BE SAD
-0.3010 <s> BETTY </s>
-0.3010 <s> BLUE </s>
-0.3010 <s> BYE </s>
-0.3010 <s> CHEERS </s>
-0.3010 <s> DIVIDE </s>
-0.3010 <s> DO YOU
-0.3010 <s> EIGHT </s>
-0.3010 <s> FIVE </s>
-0.3010 <s> FOLLOW ME
-0.3010 <s> FORWARD </s>
-0.3010 <s> FOUR </s>
-0.3010 <s> GREEN </s>
-0.3010 <s> HELLO </s>
-0.3010 <s> HI </s>
-0.3010 <s> HOW ARE
-0.6021 <s> I AM
-0.6021 <s> I APOLOGISE
-0.3010 <s> INTRODUCE YOURSELF
-0.3010 <s> LEFT </s>
-0.3010 <s> MERRY CHRISTMAS
-0.3010 <s> MINUS </s>
-0.3010 <s> MULTIPLY </s>
-0.3010 <s> NINE </s>
-0.3010 <s> NO </s>
-0.3010 <s> ONE </s>
-0.3010 <s> PLEASE </s>
-0.3010 <s> PLUS </s>
-0.3010 <s> RED </s>
-0.3010 <s> RIGHT </s>
-0.3010 <s> SAY CHEESE
-0.3010 <s> SEVEN </s>
-0.3010 <s> SIX </s>
-0.3010 <s> SORRY </s>
-0.3010 <s> STOP </s>
-0.6021 <s> TAKE PHOTO
-0.6021 <s> TAKE PICTURE
-0.3010 <s> TELL A
-0.3010 <s> TEN </s>
-0.3010 <s> THANK YOU
-0.3010 <s> THREE </s>
-0.3010 <s> TWO </s>
-0.3010 <s> WHAT DO
-0.3010 <s> WHY </s>
-0.3010 <s> YEAH </s>
-0.3010 <s> YES </s>
-0.3010 A JOKE </s>
-0.3010 A STORY </s>
-0.3010 AM SORRY </s>
-0.6021 ARE YOU </s>
-0.6021 ARE YOU FEELING
-0.3010 BE HAPPY </s>
-0.3010 BE SAD </s>
-0.6021 DO YOU LIKE
-0.6021 DO YOU THINK
-0.3010 FOLLOW ME </s>
-0.3010 HOW ARE YOU
-0.3010 I AM SORRY
-0.3010 I APOLOGISE </s>
-0.3010 INTRODUCE YOURSELF </s>
-0.3010 IT HERE </s>
-0.3010 LIKE IT HERE
-0.3010 MERRY CHRISTMAS </s>
-0.3010 OF ME </s>
-0.3010 SAY CHEESE </s>
-0.3010 TAKE PHOTO </s>
-0.3010 TAKE PICTURE </s>
-0.6021 TELL A JOKE
-0.6021 TELL A STORY
-0.3010 THANK YOU </s>
-0.3010 THINK OF ME
-0.3010 WHAT DO YOU
-0.3010 YOU FEELING </s>
-0.3010 YOU LIKE IT
-0.3010 YOU THINK OF

\end\
